<?xml version="1.0"?>
<opencv_storage>
<cascade>
  <stageType>BOOST</stageType>
  <featureType>LBP</featureType>
  <height>40</height>
  <width>80</width>
  <stageParams>
    <boostType>GAB</boostType>
    <minHitRate>9.9900001287460327e-01</minHitRate>
    <maxFalseAlarm>5.0000000000000000e-01</maxFalseAlarm>
    <weightTrimRate>9.4999999999999996e-01</weightTrimRate>
    <maxDepth>1</maxDepth>
    <maxWeakCount>100</maxWeakCount></stageParams>
  <featureParams>
    <maxCatCount>256</maxCatCount>
    <featSize>1</featSize></featureParams>
  <stageNum>1</stageNum>
  <stages>
    <!-- stage 0 -->
    <_>
      <maxWeakCount>2</maxWeakCount>
      <stageThreshold>-7.8327417373657227e-02</stageThreshold>
      <weakClassifiers>
        <_>
          <internalNodes>
            0 -1 0 -116524065 -183373549 1077954001 -209595951
            -1727731569 1124106370 -905723685 1474281695</internalNodes>
          <leafValues>
            -9.9644762277603149e-01 9.2671167850494385e-01</leafValues></_>
        <_>
          <internalNodes>
            0 -1 1 -670043937 -577810413 268554283 -754777591
            -2012507989 -2004418558 -2080128818 -867176241</internalNodes>
          <leafValues>
            -9.1294223070144653e-01 9.1812020540237427e-01</leafValues></_></weakClassifiers></_></stages>
  <features>
    <_>
      <rect>
        19 15 13 4</rect></_>
    <_>
      <rect>
        32 3 10 8</rect></_></features></cascade>
</opencv_storage>
